Language model created by QuickLM on Wed Oct 19 18:41:39 EDT 2016
Copyright (c) 1996-2010 Carnegie Mellon University and Alexander I. Rudnicky

The model is in standard ARPA format, designed by Doug Paul while he was at MITRE.

The code that was used to produce this language model is available in Open Source.
Please visit http://www.speech.cs.cmu.edu/tools/ for more information

The (fixed) discount mass is 0.5. The backoffs are computed using the ratio method.
This model based on a corpus of 3 sentences and 6 words

\data\
ngram 1=6
ngram 2=7
ngram 3=4

\1-grams:
-0.8239 </s> -0.3010
-0.8239 <s> -0.2304
-1.3010 GO -0.2788
-1.3010 LEFT -0.2304
-1.3010 RIGHT -0.2304
-1.3010 STRAIGHT -0.2304

\2-grams:
-0.7782 <s> GO 0.0000
-0.7782 <s> LEFT 0.0000
-0.7782 <s> RIGHT 0.0000
-0.3010 GO STRAIGHT 0.0000
-0.3010 LEFT </s> -0.3010
-0.3010 RIGHT </s> -0.3010
-0.3010 STRAIGHT </s> -0.3010

\3-grams:
-0.3010 <s> GO STRAIGHT
-0.3010 <s> LEFT </s>
-0.3010 <s> RIGHT </s>
-0.3010 GO STRAIGHT </s>

\end\
