Language model created by QuickLM on Wed Oct 19 12:02:45 EDT 2016
Copyright (c) 1996-2010 Carnegie Mellon University and Alexander I. Rudnicky

The model is in standard ARPA format, designed by Doug Paul while he was at MITRE.

The code that was used to produce this language model is available in Open Source.
Please visit http://www.speech.cs.cmu.edu/tools/ for more information

The (fixed) discount mass is 0.5. The backoffs are computed using the ratio method.
This model based on a corpus of 16 sentences and 30 words

\data\
ngram 1=30
ngram 2=47
ngram 3=37

\1-grams:
-0.9482 </s> -0.3010
-0.9482 <s> -0.2457
-2.1523 ARE -0.2949
-1.8513 ARM -0.2491
-1.8513 BEGIN -0.2823
-2.1523 CAN -0.2949
-2.1523 CLOSE -0.2886
-2.1523 DREAMER! -0.2491
-2.1523 END -0.2855
-2.1523 EXPERIMENT -0.2491
-2.1523 FINISH -0.2855
-2.1523 FORWARD -0.2491
-2.1523 GO -0.2855
-1.8513 HAND -0.2491
-2.1523 HEAR -0.2980
-2.1523 HELLO -0.2980
-1.4533 HERE -0.2491
-2.1523 HOLD -0.2886
-2.1523 HOW -0.2980
-2.1523 LEFT -0.2491
-2.1523 LET'S -0.2949
-2.1523 ME? -0.2491
-2.1523 OPEN -0.2886
-2.1523 RELEASE -0.2886
-2.1523 RIGHT -0.2491
-2.1523 START -0.2855
-2.1523 THE -0.2980
-2.1523 TODAY? -0.2491
-1.8513 YOU -0.2949
-1.5502 YOUR -0.2886

\2-grams:
-1.5051 <s> BEGIN -0.1761
-1.5051 <s> CAN 0.0000
-1.5051 <s> CLOSE 0.0000
-1.5051 <s> END 0.0000
-1.5051 <s> FINISH 0.0000
-1.5051 <s> FORWARD 0.0000
-1.5051 <s> GO 0.0000
-1.5051 <s> HELLO 0.0000
-1.5051 <s> HOLD 0.0000
-1.5051 <s> HOW 0.0000
-1.5051 <s> LEFT 0.0000
-1.5051 <s> LET'S 0.0000
-1.5051 <s> OPEN 0.0000
-1.5051 <s> RELEASE 0.0000
-1.5051 <s> RIGHT 0.0000
-1.5051 <s> START 0.0000
-0.3010 ARE YOU -0.1761
-0.3010 ARM </s> -0.3010
-0.6021 BEGIN HERE 0.0000
-0.6021 BEGIN THE 0.0000
-0.3010 CAN YOU -0.1761
-0.3010 CLOSE YOUR -0.1761
-0.3010 DREAMER! </s> -0.3010
-0.3010 END HERE 0.0000
-0.3010 EXPERIMENT </s> -0.3010
-0.3010 FINISH HERE 0.0000
-0.3010 FORWARD </s> -0.3010
-0.3010 GO HERE 0.0000
-0.3010 HAND </s> -0.3010
-0.3010 HEAR ME? 0.0000
-0.3010 HELLO DREAMER! 0.0000
-0.3010 HERE </s> -0.3010
-0.3010 HOLD YOUR -0.1761
-0.3010 HOW ARE 0.0000
-0.3010 LEFT </s> -0.3010
-0.3010 LET'S BEGIN -0.1761
-0.3010 ME? </s> -0.3010
-0.3010 OPEN YOUR -0.1761
-0.3010 RELEASE YOUR -0.1761
-0.3010 RIGHT </s> -0.3010
-0.3010 START HERE 0.0000
-0.3010 THE EXPERIMENT 0.0000
-0.3010 TODAY? </s> -0.3010
-0.6021 YOU HEAR 0.0000
-0.6021 YOU TODAY? 0.0000
-0.6021 YOUR ARM 0.0000
-0.6021 YOUR HAND 0.0000

\3-grams:
-0.3010 <s> BEGIN HERE
-0.3010 <s> CAN YOU
-0.3010 <s> CLOSE YOUR
-0.3010 <s> END HERE
-0.3010 <s> FINISH HERE
-0.3010 <s> FORWARD </s>
-0.3010 <s> GO HERE
-0.3010 <s> HELLO DREAMER!
-0.3010 <s> HOLD YOUR
-0.3010 <s> HOW ARE
-0.3010 <s> LEFT </s>
-0.3010 <s> LET'S BEGIN
-0.3010 <s> OPEN YOUR
-0.3010 <s> RELEASE YOUR
-0.3010 <s> RIGHT </s>
-0.3010 <s> START HERE
-0.3010 ARE YOU TODAY?
-0.3010 BEGIN HERE </s>
-0.3010 BEGIN THE EXPERIMENT
-0.3010 CAN YOU HEAR
-0.3010 CLOSE YOUR HAND
-0.3010 END HERE </s>
-0.3010 FINISH HERE </s>
-0.3010 GO HERE </s>
-0.3010 HEAR ME? </s>
-0.3010 HELLO DREAMER! </s>
-0.3010 HOLD YOUR ARM
-0.3010 HOW ARE YOU
-0.3010 LET'S BEGIN THE
-0.3010 OPEN YOUR HAND
-0.3010 RELEASE YOUR ARM
-0.3010 START HERE </s>
-0.3010 THE EXPERIMENT </s>
-0.3010 YOU HEAR ME?
-0.3010 YOU TODAY? </s>
-0.3010 YOUR ARM </s>
-0.3010 YOUR HAND </s>

\end\
